digraph Tree {
node [shape=box, style="filled, rounded", color="black", fontname="helvetica"] ;
edge [fontname="helvetica"] ;
0 [label=<adult_male &le; 0.5<br/>entropy = 0.955<br/>samples = 712<br/>value = [444, 268]>, fillcolor="#f5cdb1"] ;
1 [label=<class &le; 1.5<br/>entropy = 0.868<br/>samples = 280<br/>value = [81, 199]>, fillcolor="#8ac5f0"] ;
0 -> 1 [labeldistance=2.5, labelangle=45, headlabel="True"] ;
2 [label=<age &le; 27.5<br/>entropy = 0.222<br/>samples = 140<br/>value = [5, 135]>, fillcolor="#40a1e6"] ;
1 -> 2 ;
3 [label=<age &le; 24.5<br/>entropy = 0.358<br/>samples = 59<br/>value = [4, 55]>, fillcolor="#47a4e7"] ;
2 -> 3 ;
4 [label=<fare &le; 13.396<br/>entropy = 0.232<br/>samples = 53<br/>value = [2, 51]>, fillcolor="#41a1e6"] ;
3 -> 4 ;
5 [label=<age &le; 22.5<br/>entropy = 0.811<br/>samples = 4<br/>value = [1, 3]>, fillcolor="#7bbeee"] ;
4 -> 5 ;
6 [label=<entropy = 0.0<br/>samples = 2<br/>value = [0, 2]>, fillcolor="#399de5"] ;
5 -> 6 ;
7 [label=<entropy = 1.0<br/>samples = 2<br/>value = [1, 1]>, fillcolor="#ffffff"] ;
5 -> 7 ;
8 [label=<age &le; 2.5<br/>entropy = 0.144<br/>samples = 49<br/>value = [1, 48]>, fillcolor="#3d9fe6"] ;
4 -> 8 ;
9 [label=<fare &le; 95.275<br/>entropy = 0.544<br/>samples = 8<br/>value = [1, 7]>, fillcolor="#55abe9"] ;
8 -> 9 ;
10 [label=<entropy = 0.0<br/>samples = 6<br/>value = [0, 6]>, fillcolor="#399de5"] ;
9 -> 10 ;
11 [label=<age &le; 1.46<br/>entropy = 1.0<br/>samples = 2<br/>value = [1, 1]>, fillcolor="#ffffff"] ;
9 -> 11 ;
12 [label=<entropy = 0.0<br/>samples = 1<br/>value = [0, 1]>, fillcolor="#399de5"] ;
11 -> 12 ;
13 [label=<entropy = 0.0<br/>samples = 1<br/>value = [1, 0]>, fillcolor="#e58139"] ;
11 -> 13 ;
14 [label=<entropy = 0.0<br/>samples = 41<br/>value = [0, 41]>, fillcolor="#399de5"] ;
8 -> 14 ;
15 [label=<fare &le; 90.775<br/>entropy = 0.918<br/>samples = 6<br/>value = [2, 4]>, fillcolor="#9ccef2"] ;
3 -> 15 ;
16 [label=<sibsp &le; 0.5<br/>entropy = 0.722<br/>samples = 5<br/>value = [1, 4]>, fillcolor="#6ab6ec"] ;
15 -> 16 ;
17 [label=<entropy = 0.0<br/>samples = 2<br/>value = [0, 2]>, fillcolor="#399de5"] ;
16 -> 17 ;
18 [label=<fare &le; 17.429<br/>entropy = 0.918<br/>samples = 3<br/>value = [1, 2]>, fillcolor="#9ccef2"] ;
16 -> 18 ;
19 [label=<entropy = 0.0<br/>samples = 1<br/>value = [0, 1]>, fillcolor="#399de5"] ;
18 -> 19 ;
20 [label=<parch &le; 0.5<br/>entropy = 1.0<br/>samples = 2<br/>value = [1, 1]>, fillcolor="#ffffff"] ;
18 -> 20 ;
21 [label=<entropy = 0.0<br/>samples = 1<br/>value = [1, 0]>, fillcolor="#e58139"] ;
20 -> 21 ;
22 [label=<entropy = 0.0<br/>samples = 1<br/>value = [0, 1]>, fillcolor="#399de5"] ;
20 -> 22 ;
23 [label=<entropy = 0.0<br/>samples = 1<br/>value = [1, 0]>, fillcolor="#e58139"] ;
15 -> 23 ;
24 [label=<age &le; 49.5<br/>entropy = 0.096<br/>samples = 81<br/>value = [1, 80]>, fillcolor="#3b9ee5"] ;
2 -> 24 ;
25 [label=<entropy = 0.0<br/>samples = 65<br/>value = [0, 65]>, fillcolor="#399de5"] ;
24 -> 25 ;
26 [label=<age &le; 50.5<br/>entropy = 0.337<br/>samples = 16<br/>value = [1, 15]>, fillcolor="#46a4e7"] ;
24 -> 26 ;
27 [label=<embarked &le; 1.0<br/>entropy = 0.811<br/>samples = 4<br/>value = [1, 3]>, fillcolor="#7bbeee"] ;
26 -> 27 ;
28 [label=<entropy = 0.0<br/>samples = 1<br/>value = [1, 0]>, fillcolor="#e58139"] ;
27 -> 28 ;
29 [label=<entropy = 0.0<br/>samples = 3<br/>value = [0, 3]>, fillcolor="#399de5"] ;
27 -> 29 ;
30 [label=<entropy = 0.0<br/>samples = 12<br/>value = [0, 12]>, fillcolor="#399de5"] ;
26 -> 30 ;
31 [label=<fare &le; 23.35<br/>entropy = 0.995<br/>samples = 140<br/>value = [76, 64]>, fillcolor="#fbebe0"] ;
1 -> 31 ;
32 [label=<age &le; 1.5<br/>entropy = 0.973<br/>samples = 104<br/>value = [42, 62]>, fillcolor="#bfdff7"] ;
31 -> 32 ;
33 [label=<entropy = 0.0<br/>samples = 6<br/>value = [0, 6]>, fillcolor="#399de5"] ;
32 -> 33 ;
34 [label=<fare &le; 21.55<br/>entropy = 0.985<br/>samples = 98<br/>value = [42, 56]>, fillcolor="#cee6f8"] ;
32 -> 34 ;
35 [label=<fare &le; 20.8<br/>entropy = 0.992<br/>samples = 94<br/>value = [42, 52]>, fillcolor="#d9ecfa"] ;
34 -> 35 ;
36 [label=<fare &le; 15.373<br/>entropy = 0.982<br/>samples = 90<br/>value = [38, 52]>, fillcolor="#cae5f8"] ;
35 -> 36 ;
37 [label=<fare &le; 13.908<br/>entropy = 0.998<br/>samples = 72<br/>value = [34, 38]>, fillcolor="#eaf5fc"] ;
36 -> 37 ;
38 [label=<fare &le; 10.825<br/>entropy = 0.982<br/>samples = 64<br/>value = [27, 37]>, fillcolor="#c9e5f8"] ;
37 -> 38 ;
39 [label=<fare &le; 8.04<br/>entropy = 0.999<br/>samples = 56<br/>value = [27, 29]>, fillcolor="#f1f8fd"] ;
38 -> 39 ;
40 [label=<alone &le; 0.5<br/>entropy = 0.927<br/>samples = 38<br/>value = [13, 25]>, fillcolor="#a0d0f3"] ;
39 -> 40 ;
41 [label=<sibsp &le; 2.5<br/>entropy = 0.811<br/>samples = 4<br/>value = [3, 1]>, fillcolor="#eeab7b"] ;
40 -> 41 ;
42 [label=<entropy = 0.0<br/>samples = 3<br/>value = [3, 0]>, fillcolor="#e58139"] ;
41 -> 42 ;
43 [label=<entropy = 0.0<br/>samples = 1<br/>value = [0, 1]>, fillcolor="#399de5"] ;
41 -> 43 ;
44 [label=<embark_town &le; 0.5<br/>entropy = 0.874<br/>samples = 34<br/>value = [10, 24]>, fillcolor="#8bc6f0"] ;
40 -> 44 ;
45 [label=<entropy = 0.0<br/>samples = 4<br/>value = [0, 4]>, fillcolor="#399de5"] ;
44 -> 45 ;
46 [label=<fare &le; 7.0<br/>entropy = 0.918<br/>samples = 30<br/>value = [10, 20]>, fillcolor="#9ccef2"] ;
44 -> 46 ;
47 [label=<entropy = 0.0<br/>samples = 1<br/>value = [1, 0]>, fillcolor="#e58139"] ;
46 -> 47 ;
48 [label=<age &le; 14.5<br/>entropy = 0.894<br/>samples = 29<br/>value = [9, 20]>, fillcolor="#92c9f1"] ;
46 -> 48 ;
49 [label=<entropy = 0.0<br/>samples = 1<br/>value = [1, 0]>, fillcolor="#e58139"] ;
48 -> 49 ;
50 [label=<age &le; 36.5<br/>entropy = 0.863<br/>samples = 28<br/>value = [8, 20]>, fillcolor="#88c4ef"] ;
48 -> 50 ;
51 [label=<fare &le; 7.59<br/>entropy = 0.826<br/>samples = 27<br/>value = [7, 20]>, fillcolor="#7ebfee"] ;
50 -> 51 ;
52 [label=<entropy = 0.0<br/>samples = 3<br/>value = [0, 3]>, fillcolor="#399de5"] ;
51 -> 52 ;
53 [label=<fare &le; 7.64<br/>entropy = 0.871<br/>samples = 24<br/>value = [7, 17]>, fillcolor="#8bc5f0"] ;
51 -> 53 ;
54 [label=<entropy = 0.0<br/>samples = 1<br/>value = [1, 0]>, fillcolor="#e58139"] ;
53 -> 54 ;
55 [label=<fare &le; 7.744<br/>entropy = 0.828<br/>samples = 23<br/>value = [6, 17]>, fillcolor="#7fc0ee"] ;
53 -> 55 ;
56 [label=<entropy = 0.0<br/>samples = 4<br/>value = [0, 4]>, fillcolor="#399de5"] ;
55 -> 56 ;
57 [label=<age &le; 25.5<br/>entropy = 0.9<br/>samples = 19<br/>value = [6, 13]>, fillcolor="#94caf1"] ;
55 -> 57 ;
58 [label=<age &le; 22.5<br/>entropy = 0.985<br/>samples = 7<br/>value = [4, 3]>, fillcolor="#f8e0ce"] ;
57 -> 58 ;
59 [label=<age &le; 21.5<br/>entropy = 0.971<br/>samples = 5<br/>value = [2, 3]>, fillcolor="#bddef6"] ;
58 -> 59 ;
60 [label=<age &le; 16.5<br/>entropy = 0.918<br/>samples = 3<br/>value = [2, 1]>, fillcolor="#f2c09c"] ;
59 -> 60 ;
61 [label=<entropy = 0.0<br/>samples = 1<br/>value = [0, 1]>, fillcolor="#399de5"] ;
60 -> 61 ;
62 [label=<entropy = 0.0<br/>samples = 2<br/>value = [2, 0]>, fillcolor="#e58139"] ;
60 -> 62 ;
63 [label=<entropy = 0.0<br/>samples = 2<br/>value = [0, 2]>, fillcolor="#399de5"] ;
59 -> 63 ;
64 [label=<entropy = 0.0<br/>samples = 2<br/>value = [2, 0]>, fillcolor="#e58139"] ;
58 -> 64 ;
65 [label=<age &le; 27.5<br/>entropy = 0.65<br/>samples = 12<br/>value = [2, 10]>, fillcolor="#61b1ea"] ;
57 -> 65 ;
66 [label=<entropy = 0.0<br/>samples = 3<br/>value = [0, 3]>, fillcolor="#399de5"] ;
65 -> 66 ;
67 [label=<embark_town &le; 1.5<br/>entropy = 0.764<br/>samples = 9<br/>value = [2, 7]>, fillcolor="#72b9ec"] ;
65 -> 67 ;
68 [label=<fare &le; 7.815<br/>entropy = 0.544<br/>samples = 8<br/>value = [1, 7]>, fillcolor="#55abe9"] ;
67 -> 68 ;
69 [label=<entropy = 0.65<br/>samples = 6<br/>value = [1, 5]>, fillcolor="#61b1ea"] ;
68 -> 69 ;
70 [label=<entropy = 0.0<br/>samples = 2<br/>value = [0, 2]>, fillcolor="#399de5"] ;
68 -> 70 ;
71 [label=<entropy = 0.0<br/>samples = 1<br/>value = [1, 0]>, fillcolor="#e58139"] ;
67 -> 71 ;
72 [label=<entropy = 0.0<br/>samples = 1<br/>value = [1, 0]>, fillcolor="#e58139"] ;
50 -> 72 ;
73 [label=<age &le; 19.0<br/>entropy = 0.764<br/>samples = 18<br/>value = [14, 4]>, fillcolor="#eca572"] ;
39 -> 73 ;
74 [label=<age &le; 10.0<br/>entropy = 0.918<br/>samples = 3<br/>value = [1, 2]>, fillcolor="#9ccef2"] ;
73 -> 74 ;
75 [label=<entropy = 0.0<br/>samples = 1<br/>value = [1, 0]>, fillcolor="#e58139"] ;
74 -> 75 ;
76 [label=<entropy = 0.0<br/>samples = 2<br/>value = [0, 2]>, fillcolor="#399de5"] ;
74 -> 76 ;
77 [label=<age &le; 30.5<br/>entropy = 0.567<br/>samples = 15<br/>value = [13, 2]>, fillcolor="#e99457"] ;
73 -> 77 ;
78 [label=<entropy = 0.0<br/>samples = 11<br/>value = [11, 0]>, fillcolor="#e58139"] ;
77 -> 78 ;
79 [label=<age &le; 34.0<br/>entropy = 1.0<br/>samples = 4<br/>value = [2, 2]>, fillcolor="#ffffff"] ;
77 -> 79 ;
80 [label=<entropy = 0.0<br/>samples = 1<br/>value = [0, 1]>, fillcolor="#399de5"] ;
79 -> 80 ;
81 [label=<age &le; 51.5<br/>entropy = 0.918<br/>samples = 3<br/>value = [2, 1]>, fillcolor="#f2c09c"] ;
79 -> 81 ;
82 [label=<entropy = 0.0<br/>samples = 2<br/>value = [2, 0]>, fillcolor="#e58139"] ;
81 -> 82 ;
83 [label=<entropy = 0.0<br/>samples = 1<br/>value = [0, 1]>, fillcolor="#399de5"] ;
81 -> 83 ;
84 [label=<entropy = 0.0<br/>samples = 8<br/>value = [0, 8]>, fillcolor="#399de5"] ;
38 -> 84 ;
85 [label=<fare &le; 14.873<br/>entropy = 0.544<br/>samples = 8<br/>value = [7, 1]>, fillcolor="#e99355"] ;
37 -> 85 ;
86 [label=<entropy = 0.0<br/>samples = 6<br/>value = [6, 0]>, fillcolor="#e58139"] ;
85 -> 86 ;
87 [label=<age &le; 28.5<br/>entropy = 1.0<br/>samples = 2<br/>value = [1, 1]>, fillcolor="#ffffff"] ;
85 -> 87 ;
88 [label=<entropy = 0.0<br/>samples = 1<br/>value = [1, 0]>, fillcolor="#e58139"] ;
87 -> 88 ;
89 [label=<entropy = 0.0<br/>samples = 1<br/>value = [0, 1]>, fillcolor="#399de5"] ;
87 -> 89 ;
90 [label=<fare &le; 16.0<br/>entropy = 0.764<br/>samples = 18<br/>value = [4, 14]>, fillcolor="#72b9ec"] ;
36 -> 90 ;
91 [label=<entropy = 0.0<br/>samples = 7<br/>value = [0, 7]>, fillcolor="#399de5"] ;
90 -> 91 ;
92 [label=<age &le; 21.0<br/>entropy = 0.946<br/>samples = 11<br/>value = [4, 7]>, fillcolor="#aad5f4"] ;
90 -> 92 ;
93 [label=<entropy = 0.0<br/>samples = 2<br/>value = [2, 0]>, fillcolor="#e58139"] ;
92 -> 93 ;
94 [label=<parch &le; 0.5<br/>entropy = 0.764<br/>samples = 9<br/>value = [2, 7]>, fillcolor="#72b9ec"] ;
92 -> 94 ;
95 [label=<fare &le; 17.7<br/>entropy = 0.971<br/>samples = 5<br/>value = [2, 3]>, fillcolor="#bddef6"] ;
94 -> 95 ;
96 [label=<age &le; 27.0<br/>entropy = 0.811<br/>samples = 4<br/>value = [1, 3]>, fillcolor="#7bbeee"] ;
95 -> 96 ;
97 [label=<entropy = 0.0<br/>samples = 1<br/>value = [1, 0]>, fillcolor="#e58139"] ;
96 -> 97 ;
98 [label=<entropy = 0.0<br/>samples = 3<br/>value = [0, 3]>, fillcolor="#399de5"] ;
96 -> 98 ;
99 [label=<entropy = 0.0<br/>samples = 1<br/>value = [1, 0]>, fillcolor="#e58139"] ;
95 -> 99 ;
100 [label=<entropy = 0.0<br/>samples = 4<br/>value = [0, 4]>, fillcolor="#399de5"] ;
94 -> 100 ;
101 [label=<entropy = 0.0<br/>samples = 4<br/>value = [4, 0]>, fillcolor="#e58139"] ;
35 -> 101 ;
102 [label=<entropy = 0.0<br/>samples = 4<br/>value = [0, 4]>, fillcolor="#399de5"] ;
34 -> 102 ;
103 [label=<age &le; 5.5<br/>entropy = 0.31<br/>samples = 36<br/>value = [34, 2]>, fillcolor="#e78845"] ;
31 -> 103 ;
104 [label=<age &le; 2.5<br/>entropy = 0.722<br/>samples = 10<br/>value = [8, 2]>, fillcolor="#eca06a"] ;
103 -> 104 ;
105 [label=<entropy = 0.0<br/>samples = 6<br/>value = [6, 0]>, fillcolor="#e58139"] ;
104 -> 105 ;
106 [label=<fare &le; 31.331<br/>entropy = 1.0<br/>samples = 4<br/>value = [2, 2]>, fillcolor="#ffffff"] ;
104 -> 106 ;
107 [label=<entropy = 0.0<br/>samples = 2<br/>value = [2, 0]>, fillcolor="#e58139"] ;
106 -> 107 ;
108 [label=<entropy = 0.0<br/>samples = 2<br/>value = [0, 2]>, fillcolor="#399de5"] ;
106 -> 108 ;
109 [label=<entropy = 0.0<br/>samples = 26<br/>value = [26, 0]>, fillcolor="#e58139"] ;
103 -> 109 ;
110 [label=<fare &le; 26.269<br/>entropy = 0.634<br/>samples = 432<br/>value = [363, 69]>, fillcolor="#ea995f"] ;
0 -> 110 [labeldistance=2.5, labelangle=-45, headlabel="False"] ;
111 [label=<age &le; 32.5<br/>entropy = 0.493<br/>samples = 325<br/>value = [290, 35]>, fillcolor="#e89051"] ;
110 -> 111 ;
112 [label=<age &le; 30.5<br/>entropy = 0.549<br/>samples = 236<br/>value = [206, 30]>, fillcolor="#e99356"] ;
111 -> 112 ;
113 [label=<embarked &le; 0.5<br/>entropy = 0.508<br/>samples = 222<br/>value = [197, 25]>, fillcolor="#e89152"] ;
112 -> 113 ;
114 [label=<age &le; 22.5<br/>entropy = 0.797<br/>samples = 29<br/>value = [22, 7]>, fillcolor="#eda978"] ;
113 -> 114 ;
115 [label=<fare &le; 5.619<br/>entropy = 0.971<br/>samples = 5<br/>value = [2, 3]>, fillcolor="#bddef6"] ;
114 -> 115 ;
116 [label=<entropy = 0.0<br/>samples = 1<br/>value = [1, 0]>, fillcolor="#e58139"] ;
115 -> 116 ;
117 [label=<age &le; 21.0<br/>entropy = 0.811<br/>samples = 4<br/>value = [1, 3]>, fillcolor="#7bbeee"] ;
115 -> 117 ;
118 [label=<entropy = 0.0<br/>samples = 2<br/>value = [0, 2]>, fillcolor="#399de5"] ;
117 -> 118 ;
119 [label=<fare &le; 7.227<br/>entropy = 1.0<br/>samples = 2<br/>value = [1, 1]>, fillcolor="#ffffff"] ;
117 -> 119 ;
120 [label=<entropy = 0.0<br/>samples = 1<br/>value = [0, 1]>, fillcolor="#399de5"] ;
119 -> 120 ;
121 [label=<entropy = 0.0<br/>samples = 1<br/>value = [1, 0]>, fillcolor="#e58139"] ;
119 -> 121 ;
122 [label=<fare &le; 7.227<br/>entropy = 0.65<br/>samples = 24<br/>value = [20, 4]>, fillcolor="#ea9a61"] ;
114 -> 122 ;
123 [label=<entropy = 0.0<br/>samples = 5<br/>value = [5, 0]>, fillcolor="#e58139"] ;
122 -> 123 ;
124 [label=<sibsp &le; 0.5<br/>entropy = 0.742<br/>samples = 19<br/>value = [15, 4]>, fillcolor="#eca36e"] ;
122 -> 124 ;
125 [label=<fare &le; 16.919<br/>entropy = 0.811<br/>samples = 16<br/>value = [12, 4]>, fillcolor="#eeab7b"] ;
124 -> 125 ;
126 [label=<fare &le; 14.16<br/>entropy = 0.722<br/>samples = 15<br/>value = [12, 3]>, fillcolor="#eca06a"] ;
125 -> 126 ;
127 [label=<fare &le; 10.879<br/>entropy = 0.811<br/>samples = 12<br/>value = [9, 3]>, fillcolor="#eeab7b"] ;
126 -> 127 ;
128 [label=<age &le; 28.75<br/>entropy = 0.684<br/>samples = 11<br/>value = [9, 2]>, fillcolor="#eb9d65"] ;
127 -> 128 ;
129 [label=<fare &le; 7.562<br/>entropy = 0.503<br/>samples = 9<br/>value = [8, 1]>, fillcolor="#e89152"] ;
128 -> 129 ;
130 [label=<age &le; 28.25<br/>entropy = 0.592<br/>samples = 7<br/>value = [6, 1]>, fillcolor="#e9965a"] ;
129 -> 130 ;
131 [label=<entropy = 0.65<br/>samples = 6<br/>value = [5, 1]>, fillcolor="#ea9a61"] ;
130 -> 131 ;
132 [label=<entropy = 0.0<br/>samples = 1<br/>value = [1, 0]>, fillcolor="#e58139"] ;
130 -> 132 ;
133 [label=<entropy = 0.0<br/>samples = 2<br/>value = [2, 0]>, fillcolor="#e58139"] ;
129 -> 133 ;
134 [label=<age &le; 29.5<br/>entropy = 1.0<br/>samples = 2<br/>value = [1, 1]>, fillcolor="#ffffff"] ;
128 -> 134 ;
135 [label=<entropy = 0.0<br/>samples = 1<br/>value = [0, 1]>, fillcolor="#399de5"] ;
134 -> 135 ;
136 [label=<entropy = 0.0<br/>samples = 1<br/>value = [1, 0]>, fillcolor="#e58139"] ;
134 -> 136 ;
137 [label=<entropy = 0.0<br/>samples = 1<br/>value = [0, 1]>, fillcolor="#399de5"] ;
127 -> 137 ;
138 [label=<entropy = 0.0<br/>samples = 3<br/>value = [3, 0]>, fillcolor="#e58139"] ;
126 -> 138 ;
139 [label=<entropy = 0.0<br/>samples = 1<br/>value = [0, 1]>, fillcolor="#399de5"] ;
125 -> 139 ;
140 [label=<entropy = 0.0<br/>samples = 3<br/>value = [3, 0]>, fillcolor="#e58139"] ;
124 -> 140 ;
141 [label=<fare &le; 7.798<br/>entropy = 0.447<br/>samples = 193<br/>value = [175, 18]>, fillcolor="#e88e4d"] ;
113 -> 141 ;
142 [label=<age &le; 20.5<br/>entropy = 0.616<br/>samples = 59<br/>value = [50, 9]>, fillcolor="#ea985d"] ;
141 -> 142 ;
143 [label=<entropy = 0.0<br/>samples = 10<br/>value = [10, 0]>, fillcolor="#e58139"] ;
142 -> 143 ;
144 [label=<fare &le; 7.763<br/>entropy = 0.688<br/>samples = 49<br/>value = [40, 9]>, fillcolor="#eb9d66"] ;
142 -> 144 ;
145 [label=<class &le; 1.5<br/>entropy = 0.544<br/>samples = 40<br/>value = [35, 5]>, fillcolor="#e99355"] ;
144 -> 145 ;
146 [label=<entropy = 0.0<br/>samples = 7<br/>value = [7, 0]>, fillcolor="#e58139"] ;
145 -> 146 ;
147 [label=<fare &le; 3.429<br/>entropy = 0.614<br/>samples = 33<br/>value = [28, 5]>, fillcolor="#ea985c"] ;
145 -> 147 ;
148 [label=<entropy = 0.0<br/>samples = 1<br/>value = [0, 1]>, fillcolor="#399de5"] ;
147 -> 148 ;
149 [label=<age &le; 23.0<br/>entropy = 0.544<br/>samples = 32<br/>value = [28, 4]>, fillcolor="#e99355"] ;
147 -> 149 ;
150 [label=<entropy = 0.0<br/>samples = 7<br/>value = [7, 0]>, fillcolor="#e58139"] ;
149 -> 150 ;
151 [label=<age &le; 24.5<br/>entropy = 0.634<br/>samples = 25<br/>value = [21, 4]>, fillcolor="#ea995f"] ;
149 -> 151 ;
152 [label=<entropy = 0.0<br/>samples = 1<br/>value = [0, 1]>, fillcolor="#399de5"] ;
151 -> 152 ;
153 [label=<age &le; 28.5<br/>entropy = 0.544<br/>samples = 24<br/>value = [21, 3]>, fillcolor="#e99355"] ;
151 -> 153 ;
154 [label=<fare &le; 7.013<br/>entropy = 0.439<br/>samples = 22<br/>value = [20, 2]>, fillcolor="#e88e4d"] ;
153 -> 154 ;
155 [label=<fare &le; 6.962<br/>entropy = 0.918<br/>samples = 3<br/>value = [2, 1]>, fillcolor="#f2c09c"] ;
154 -> 155 ;
156 [label=<entropy = 0.0<br/>samples = 2<br/>value = [2, 0]>, fillcolor="#e58139"] ;
155 -> 156 ;
157 [label=<entropy = 0.0<br/>samples = 1<br/>value = [0, 1]>, fillcolor="#399de5"] ;
155 -> 157 ;
158 [label=<fare &le; 7.746<br/>entropy = 0.297<br/>samples = 19<br/>value = [18, 1]>, fillcolor="#e68844"] ;
154 -> 158 ;
159 [label=<entropy = 0.0<br/>samples = 10<br/>value = [10, 0]>, fillcolor="#e58139"] ;
158 -> 159 ;
160 [label=<alone &le; 0.5<br/>entropy = 0.503<br/>samples = 9<br/>value = [8, 1]>, fillcolor="#e89152"] ;
158 -> 160 ;
161 [label=<entropy = 0.0<br/>samples = 1<br/>value = [1, 0]>, fillcolor="#e58139"] ;
160 -> 161 ;
162 [label=<entropy = 0.544<br/>samples = 8<br/>value = [7, 1]>, fillcolor="#e99355"] ;
160 -> 162 ;
163 [label=<embarked &le; 1.5<br/>entropy = 1.0<br/>samples = 2<br/>value = [1, 1]>, fillcolor="#ffffff"] ;
153 -> 163 ;
164 [label=<entropy = 0.0<br/>samples = 1<br/>value = [0, 1]>, fillcolor="#399de5"] ;
163 -> 164 ;
165 [label=<entropy = 0.0<br/>samples = 1<br/>value = [1, 0]>, fillcolor="#e58139"] ;
163 -> 165 ;
166 [label=<sibsp &le; 0.5<br/>entropy = 0.991<br/>samples = 9<br/>value = [5, 4]>, fillcolor="#fae6d7"] ;
144 -> 166 ;
167 [label=<age &le; 21.5<br/>entropy = 0.954<br/>samples = 8<br/>value = [5, 3]>, fillcolor="#f5cdb0"] ;
166 -> 167 ;
168 [label=<entropy = 0.0<br/>samples = 1<br/>value = [0, 1]>, fillcolor="#399de5"] ;
167 -> 168 ;
169 [label=<age &le; 26.5<br/>entropy = 0.863<br/>samples = 7<br/>value = [5, 2]>, fillcolor="#efb388"] ;
167 -> 169 ;
170 [label=<entropy = 0.0<br/>samples = 3<br/>value = [3, 0]>, fillcolor="#e58139"] ;
169 -> 170 ;
171 [label=<age &le; 27.5<br/>entropy = 1.0<br/>samples = 4<br/>value = [2, 2]>, fillcolor="#ffffff"] ;
169 -> 171 ;
172 [label=<entropy = 0.0<br/>samples = 1<br/>value = [0, 1]>, fillcolor="#399de5"] ;
171 -> 172 ;
173 [label=<fare &le; 7.785<br/>entropy = 0.918<br/>samples = 3<br/>value = [2, 1]>, fillcolor="#f2c09c"] ;
171 -> 173 ;
174 [label=<entropy = 1.0<br/>samples = 2<br/>value = [1, 1]>, fillcolor="#ffffff"] ;
173 -> 174 ;
175 [label=<entropy = 0.0<br/>samples = 1<br/>value = [1, 0]>, fillcolor="#e58139"] ;
173 -> 175 ;
176 [label=<entropy = 0.0<br/>samples = 1<br/>value = [0, 1]>, fillcolor="#399de5"] ;
166 -> 176 ;
177 [label=<fare &le; 7.91<br/>entropy = 0.355<br/>samples = 134<br/>value = [125, 9]>, fillcolor="#e78a47"] ;
141 -> 177 ;
178 [label=<entropy = 0.0<br/>samples = 29<br/>value = [29, 0]>, fillcolor="#e58139"] ;
177 -> 178 ;
179 [label=<fare &le; 11.0<br/>entropy = 0.422<br/>samples = 105<br/>value = [96, 9]>, fillcolor="#e78d4c"] ;
177 -> 179 ;
180 [label=<age &le; 20.5<br/>entropy = 0.531<br/>samples = 58<br/>value = [51, 7]>, fillcolor="#e99254"] ;
179 -> 180 ;
181 [label=<fare &le; 8.175<br/>entropy = 0.764<br/>samples = 18<br/>value = [14, 4]>, fillcolor="#eca572"] ;
180 -> 181 ;
182 [label=<fare &le; 7.988<br/>entropy = 1.0<br/>samples = 6<br/>value = [3, 3]>, fillcolor="#ffffff"] ;
181 -> 182 ;
183 [label=<entropy = 0.0<br/>samples = 1<br/>value = [0, 1]>, fillcolor="#399de5"] ;
182 -> 183 ;
184 [label=<age &le; 19.5<br/>entropy = 0.971<br/>samples = 5<br/>value = [3, 2]>, fillcolor="#f6d5bd"] ;
182 -> 184 ;
185 [label=<age &le; 17.5<br/>entropy = 1.0<br/>samples = 4<br/>value = [2, 2]>, fillcolor="#ffffff"] ;
184 -> 185 ;
186 [label=<entropy = 1.0<br/>samples = 2<br/>value = [1, 1]>, fillcolor="#ffffff"] ;
185 -> 186 ;
187 [label=<entropy = 1.0<br/>samples = 2<br/>value = [1, 1]>, fillcolor="#ffffff"] ;
185 -> 187 ;
188 [label=<entropy = 0.0<br/>samples = 1<br/>value = [1, 0]>, fillcolor="#e58139"] ;
184 -> 188 ;
189 [label=<class &le; 1.5<br/>entropy = 0.414<br/>samples = 12<br/>value = [11, 1]>, fillcolor="#e78c4b"] ;
181 -> 189 ;
190 [label=<age &le; 17.5<br/>entropy = 0.918<br/>samples = 3<br/>value = [2, 1]>, fillcolor="#f2c09c"] ;
189 -> 190 ;
191 [label=<entropy = 0.0<br/>samples = 1<br/>value = [1, 0]>, fillcolor="#e58139"] ;
190 -> 191 ;
192 [label=<entropy = 1.0<br/>samples = 2<br/>value = [1, 1]>, fillcolor="#ffffff"] ;
190 -> 192 ;
193 [label=<entropy = 0.0<br/>samples = 9<br/>value = [9, 0]>, fillcolor="#e58139"] ;
189 -> 193 ;
194 [label=<fare &le; 8.081<br/>entropy = 0.384<br/>samples = 40<br/>value = [37, 3]>, fillcolor="#e78b49"] ;
180 -> 194 ;
195 [label=<entropy = 0.0<br/>samples = 22<br/>value = [22, 0]>, fillcolor="#e58139"] ;
194 -> 195 ;
196 [label=<fare &le; 8.388<br/>entropy = 0.65<br/>samples = 18<br/>value = [15, 3]>, fillcolor="#ea9a61"] ;
194 -> 196 ;
197 [label=<entropy = 0.0<br/>samples = 1<br/>value = [0, 1]>, fillcolor="#399de5"] ;
196 -> 197 ;
198 [label=<age &le; 26.5<br/>entropy = 0.523<br/>samples = 17<br/>value = [15, 2]>, fillcolor="#e89253"] ;
196 -> 198 ;
199 [label=<entropy = 0.0<br/>samples = 7<br/>value = [7, 0]>, fillcolor="#e58139"] ;
198 -> 199 ;
200 [label=<age &le; 27.5<br/>entropy = 0.722<br/>samples = 10<br/>value = [8, 2]>, fillcolor="#eca06a"] ;
198 -> 200 ;
201 [label=<entropy = 0.0<br/>samples = 1<br/>value = [0, 1]>, fillcolor="#399de5"] ;
200 -> 201 ;
202 [label=<age &le; 28.5<br/>entropy = 0.503<br/>samples = 9<br/>value = [8, 1]>, fillcolor="#e89152"] ;
200 -> 202 ;
203 [label=<entropy = 0.0<br/>samples = 5<br/>value = [5, 0]>, fillcolor="#e58139"] ;
202 -> 203 ;
204 [label=<pclass &le; 2.5<br/>entropy = 0.811<br/>samples = 4<br/>value = [3, 1]>, fillcolor="#eeab7b"] ;
202 -> 204 ;
205 [label=<entropy = 0.0<br/>samples = 2<br/>value = [2, 0]>, fillcolor="#e58139"] ;
204 -> 205 ;
206 [label=<fare &le; 9.492<br/>entropy = 1.0<br/>samples = 2<br/>value = [1, 1]>, fillcolor="#ffffff"] ;
204 -> 206 ;
207 [label=<entropy = 0.0<br/>samples = 1<br/>value = [1, 0]>, fillcolor="#e58139"] ;
206 -> 207 ;
208 [label=<entropy = 0.0<br/>samples = 1<br/>value = [0, 1]>, fillcolor="#399de5"] ;
206 -> 208 ;
209 [label=<sibsp &le; 1.5<br/>entropy = 0.254<br/>samples = 47<br/>value = [45, 2]>, fillcolor="#e68742"] ;
179 -> 209 ;
210 [label=<fare &le; 13.25<br/>entropy = 0.156<br/>samples = 44<br/>value = [43, 1]>, fillcolor="#e6843e"] ;
209 -> 210 ;
211 [label=<age &le; 27.5<br/>entropy = 0.337<br/>samples = 16<br/>value = [15, 1]>, fillcolor="#e78946"] ;
210 -> 211 ;
212 [label=<entropy = 0.0<br/>samples = 13<br/>value = [13, 0]>, fillcolor="#e58139"] ;
211 -> 212 ;
213 [label=<age &le; 29.0<br/>entropy = 0.918<br/>samples = 3<br/>value = [2, 1]>, fillcolor="#f2c09c"] ;
211 -> 213 ;
214 [label=<entropy = 0.0<br/>samples = 1<br/>value = [0, 1]>, fillcolor="#399de5"] ;
213 -> 214 ;
215 [label=<entropy = 0.0<br/>samples = 2<br/>value = [2, 0]>, fillcolor="#e58139"] ;
213 -> 215 ;
216 [label=<entropy = 0.0<br/>samples = 28<br/>value = [28, 0]>, fillcolor="#e58139"] ;
210 -> 216 ;
217 [label=<fare &le; 23.7<br/>entropy = 0.918<br/>samples = 3<br/>value = [2, 1]>, fillcolor="#f2c09c"] ;
209 -> 217 ;
218 [label=<entropy = 0.0<br/>samples = 1<br/>value = [0, 1]>, fillcolor="#399de5"] ;
217 -> 218 ;
219 [label=<entropy = 0.0<br/>samples = 2<br/>value = [2, 0]>, fillcolor="#e58139"] ;
217 -> 219 ;
220 [label=<fare &le; 7.815<br/>entropy = 0.94<br/>samples = 14<br/>value = [9, 5]>, fillcolor="#f3c7a7"] ;
112 -> 220 ;
221 [label=<entropy = 0.0<br/>samples = 3<br/>value = [3, 0]>, fillcolor="#e58139"] ;
220 -> 221 ;
222 [label=<fare &le; 7.875<br/>entropy = 0.994<br/>samples = 11<br/>value = [6, 5]>, fillcolor="#fbeade"] ;
220 -> 222 ;
223 [label=<entropy = 0.0<br/>samples = 1<br/>value = [0, 1]>, fillcolor="#399de5"] ;
222 -> 223 ;
224 [label=<parch &le; 0.5<br/>entropy = 0.971<br/>samples = 10<br/>value = [6, 4]>, fillcolor="#f6d5bd"] ;
222 -> 224 ;
225 [label=<pclass &le; 2.5<br/>entropy = 0.991<br/>samples = 9<br/>value = [5, 4]>, fillcolor="#fae6d7"] ;
224 -> 225 ;
226 [label=<entropy = 0.0<br/>samples = 1<br/>value = [0, 1]>, fillcolor="#399de5"] ;
225 -> 226 ;
227 [label=<fare &le; 8.206<br/>entropy = 0.954<br/>samples = 8<br/>value = [5, 3]>, fillcolor="#f5cdb0"] ;
225 -> 227 ;
228 [label=<age &le; 31.5<br/>entropy = 1.0<br/>samples = 6<br/>value = [3, 3]>, fillcolor="#ffffff"] ;
227 -> 228 ;
229 [label=<entropy = 0.0<br/>samples = 1<br/>value = [0, 1]>, fillcolor="#399de5"] ;
228 -> 229 ;
230 [label=<fare &le; 7.988<br/>entropy = 0.971<br/>samples = 5<br/>value = [3, 2]>, fillcolor="#f6d5bd"] ;
228 -> 230 ;
231 [label=<fare &le; 7.91<br/>entropy = 0.811<br/>samples = 4<br/>value = [3, 1]>, fillcolor="#eeab7b"] ;
230 -> 231 ;
232 [label=<entropy = 0.0<br/>samples = 1<br/>value = [1, 0]>, fillcolor="#e58139"] ;
231 -> 232 ;
233 [label=<entropy = 0.918<br/>samples = 3<br/>value = [2, 1]>, fillcolor="#f2c09c"] ;
231 -> 233 ;
234 [label=<entropy = 0.0<br/>samples = 1<br/>value = [0, 1]>, fillcolor="#399de5"] ;
230 -> 234 ;
235 [label=<entropy = 0.0<br/>samples = 2<br/>value = [2, 0]>, fillcolor="#e58139"] ;
227 -> 235 ;
236 [label=<entropy = 0.0<br/>samples = 1<br/>value = [1, 0]>, fillcolor="#e58139"] ;
224 -> 236 ;
237 [label=<fare &le; 7.91<br/>entropy = 0.312<br/>samples = 89<br/>value = [84, 5]>, fillcolor="#e78845"] ;
111 -> 237 ;
238 [label=<entropy = 0.0<br/>samples = 30<br/>value = [30, 0]>, fillcolor="#e58139"] ;
237 -> 238 ;
239 [label=<fare &le; 13.25<br/>entropy = 0.419<br/>samples = 59<br/>value = [54, 5]>, fillcolor="#e78d4b"] ;
237 -> 239 ;
240 [label=<fare &le; 7.988<br/>entropy = 0.592<br/>samples = 35<br/>value = [30, 5]>, fillcolor="#e9965a"] ;
239 -> 240 ;
241 [label=<alone &le; 0.5<br/>entropy = 1.0<br/>samples = 4<br/>value = [2, 2]>, fillcolor="#ffffff"] ;
240 -> 241 ;
242 [label=<entropy = 0.0<br/>samples = 1<br/>value = [1, 0]>, fillcolor="#e58139"] ;
241 -> 242 ;
243 [label=<age &le; 41.5<br/>entropy = 0.918<br/>samples = 3<br/>value = [1, 2]>, fillcolor="#9ccef2"] ;
241 -> 243 ;
244 [label=<entropy = 1.0<br/>samples = 2<br/>value = [1, 1]>, fillcolor="#ffffff"] ;
243 -> 244 ;
245 [label=<entropy = 0.0<br/>samples = 1<br/>value = [0, 1]>, fillcolor="#399de5"] ;
243 -> 245 ;
246 [label=<pclass &le; 2.5<br/>entropy = 0.459<br/>samples = 31<br/>value = [28, 3]>, fillcolor="#e88e4e"] ;
240 -> 246 ;
247 [label=<age &le; 59.5<br/>entropy = 0.696<br/>samples = 16<br/>value = [13, 3]>, fillcolor="#eb9e67"] ;
246 -> 247 ;
248 [label=<age &le; 45.0<br/>entropy = 0.592<br/>samples = 14<br/>value = [12, 2]>, fillcolor="#e9965a"] ;
247 -> 248 ;
249 [label=<fare &le; 12.637<br/>entropy = 0.764<br/>samples = 9<br/>value = [7, 2]>, fillcolor="#eca572"] ;
248 -> 249 ;
250 [label=<entropy = 0.0<br/>samples = 3<br/>value = [3, 0]>, fillcolor="#e58139"] ;
249 -> 250 ;
251 [label=<age &le; 40.5<br/>entropy = 0.918<br/>samples = 6<br/>value = [4, 2]>, fillcolor="#f2c09c"] ;
249 -> 251 ;
252 [label=<age &le; 36.5<br/>entropy = 0.811<br/>samples = 4<br/>value = [3, 1]>, fillcolor="#eeab7b"] ;
251 -> 252 ;
253 [label=<entropy = 0.918<br/>samples = 3<br/>value = [2, 1]>, fillcolor="#f2c09c"] ;
252 -> 253 ;
254 [label=<entropy = 0.0<br/>samples = 1<br/>value = [1, 0]>, fillcolor="#e58139"] ;
252 -> 254 ;
255 [label=<entropy = 1.0<br/>samples = 2<br/>value = [1, 1]>, fillcolor="#ffffff"] ;
251 -> 255 ;
256 [label=<entropy = 0.0<br/>samples = 5<br/>value = [5, 0]>, fillcolor="#e58139"] ;
248 -> 256 ;
257 [label=<age &le; 66.0<br/>entropy = 1.0<br/>samples = 2<br/>value = [1, 1]>, fillcolor="#ffffff"] ;
247 -> 257 ;
258 [label=<entropy = 0.0<br/>samples = 1<br/>value = [0, 1]>, fillcolor="#399de5"] ;
257 -> 258 ;
259 [label=<entropy = 0.0<br/>samples = 1<br/>value = [1, 0]>, fillcolor="#e58139"] ;
257 -> 259 ;
260 [label=<entropy = 0.0<br/>samples = 15<br/>value = [15, 0]>, fillcolor="#e58139"] ;
246 -> 260 ;
261 [label=<entropy = 0.0<br/>samples = 24<br/>value = [24, 0]>, fillcolor="#e58139"] ;
239 -> 261 ;
262 [label=<fare &le; 26.419<br/>entropy = 0.902<br/>samples = 107<br/>value = [73, 34]>, fillcolor="#f1bc95"] ;
110 -> 262 ;
263 [label=<entropy = 0.0<br/>samples = 2<br/>value = [0, 2]>, fillcolor="#399de5"] ;
262 -> 263 ;
264 [label=<fare &le; 387.665<br/>entropy = 0.887<br/>samples = 105<br/>value = [73, 32]>, fillcolor="#f0b890"] ;
262 -> 264 ;
265 [label=<fare &le; 134.642<br/>entropy = 0.87<br/>samples = 103<br/>value = [73, 30]>, fillcolor="#f0b58a"] ;
264 -> 265 ;
266 [label=<fare &le; 115.442<br/>entropy = 0.896<br/>samples = 96<br/>value = [66, 30]>, fillcolor="#f1ba93"] ;
265 -> 266 ;
267 [label=<sibsp &le; 1.5<br/>entropy = 0.879<br/>samples = 94<br/>value = [66, 28]>, fillcolor="#f0b68d"] ;
266 -> 267 ;
268 [label=<fare &le; 52.277<br/>entropy = 0.906<br/>samples = 87<br/>value = [59, 28]>, fillcolor="#f1bd97"] ;
267 -> 268 ;
269 [label=<fare &le; 36.125<br/>entropy = 0.804<br/>samples = 53<br/>value = [40, 13]>, fillcolor="#edaa79"] ;
268 -> 269 ;
270 [label=<alone &le; 0.5<br/>entropy = 0.918<br/>samples = 39<br/>value = [26, 13]>, fillcolor="#f2c09c"] ;
269 -> 270 ;
271 [label=<entropy = 0.0<br/>samples = 7<br/>value = [7, 0]>, fillcolor="#e58139"] ;
270 -> 271 ;
272 [label=<age &le; 57.0<br/>entropy = 0.974<br/>samples = 32<br/>value = [19, 13]>, fillcolor="#f7d7c0"] ;
270 -> 272 ;
273 [label=<age &le; 27.5<br/>entropy = 0.999<br/>samples = 25<br/>value = [13, 12]>, fillcolor="#fdf5f0"] ;
272 -> 273 ;
274 [label=<entropy = 0.0<br/>samples = 1<br/>value = [0, 1]>, fillcolor="#399de5"] ;
273 -> 274 ;
275 [label=<age &le; 47.5<br/>entropy = 0.995<br/>samples = 24<br/>value = [13, 11]>, fillcolor="#fbece1"] ;
273 -> 275 ;
276 [label=<age &le; 45.25<br/>entropy = 0.964<br/>samples = 18<br/>value = [11, 7]>, fillcolor="#f6d1b7"] ;
275 -> 276 ;
277 [label=<fare &le; 28.725<br/>entropy = 0.989<br/>samples = 16<br/>value = [9, 7]>, fillcolor="#f9e3d3"] ;
276 -> 277 ;
278 [label=<embark_town &le; 1.0<br/>entropy = 0.863<br/>samples = 7<br/>value = [5, 2]>, fillcolor="#efb388"] ;
277 -> 278 ;
279 [label=<entropy = 0.0<br/>samples = 3<br/>value = [3, 0]>, fillcolor="#e58139"] ;
278 -> 279 ;
280 [label=<age &le; 36.5<br/>entropy = 1.0<br/>samples = 4<br/>value = [2, 2]>, fillcolor="#ffffff"] ;
278 -> 280 ;
281 [label=<entropy = 1.0<br/>samples = 2<br/>value = [1, 1]>, fillcolor="#ffffff"] ;
280 -> 281 ;
282 [label=<entropy = 1.0<br/>samples = 2<br/>value = [1, 1]>, fillcolor="#ffffff"] ;
280 -> 282 ;
283 [label=<fare &le; 30.75<br/>entropy = 0.991<br/>samples = 9<br/>value = [4, 5]>, fillcolor="#d7ebfa"] ;
277 -> 283 ;
284 [label=<age &le; 28.5<br/>entropy = 0.722<br/>samples = 5<br/>value = [1, 4]>, fillcolor="#6ab6ec"] ;
283 -> 284 ;
285 [label=<entropy = 0.0<br/>samples = 3<br/>value = [0, 3]>, fillcolor="#399de5"] ;
284 -> 285 ;
286 [label=<age &le; 30.5<br/>entropy = 1.0<br/>samples = 2<br/>value = [1, 1]>, fillcolor="#ffffff"] ;
284 -> 286 ;
287 [label=<entropy = 0.0<br/>samples = 1<br/>value = [1, 0]>, fillcolor="#e58139"] ;
286 -> 287 ;
288 [label=<entropy = 0.0<br/>samples = 1<br/>value = [0, 1]>, fillcolor="#399de5"] ;
286 -> 288 ;
289 [label=<fare &le; 35.25<br/>entropy = 0.811<br/>samples = 4<br/>value = [3, 1]>, fillcolor="#eeab7b"] ;
283 -> 289 ;
290 [label=<entropy = 0.0<br/>samples = 2<br/>value = [2, 0]>, fillcolor="#e58139"] ;
289 -> 290 ;
291 [label=<age &le; 36.5<br/>entropy = 1.0<br/>samples = 2<br/>value = [1, 1]>, fillcolor="#ffffff"] ;
289 -> 291 ;
292 [label=<entropy = 0.0<br/>samples = 1<br/>value = [0, 1]>, fillcolor="#399de5"] ;
291 -> 292 ;
293 [label=<entropy = 0.0<br/>samples = 1<br/>value = [1, 0]>, fillcolor="#e58139"] ;
291 -> 293 ;
294 [label=<entropy = 0.0<br/>samples = 2<br/>value = [2, 0]>, fillcolor="#e58139"] ;
276 -> 294 ;
295 [label=<age &le; 53.5<br/>entropy = 0.918<br/>samples = 6<br/>value = [2, 4]>, fillcolor="#9ccef2"] ;
275 -> 295 ;
296 [label=<entropy = 0.0<br/>samples = 3<br/>value = [0, 3]>, fillcolor="#399de5"] ;
295 -> 296 ;
297 [label=<fare &le; 33.0<br/>entropy = 0.918<br/>samples = 3<br/>value = [2, 1]>, fillcolor="#f2c09c"] ;
295 -> 297 ;
298 [label=<entropy = 0.0<br/>samples = 2<br/>value = [2, 0]>, fillcolor="#e58139"] ;
297 -> 298 ;
299 [label=<entropy = 0.0<br/>samples = 1<br/>value = [0, 1]>, fillcolor="#399de5"] ;
297 -> 299 ;
300 [label=<age &le; 72.5<br/>entropy = 0.592<br/>samples = 7<br/>value = [6, 1]>, fillcolor="#e9965a"] ;
272 -> 300 ;
301 [label=<entropy = 0.0<br/>samples = 6<br/>value = [6, 0]>, fillcolor="#e58139"] ;
300 -> 301 ;
302 [label=<entropy = 0.0<br/>samples = 1<br/>value = [0, 1]>, fillcolor="#399de5"] ;
300 -> 302 ;
303 [label=<entropy = 0.0<br/>samples = 14<br/>value = [14, 0]>, fillcolor="#e58139"] ;
269 -> 303 ;
304 [label=<age &le; 41.5<br/>entropy = 0.99<br/>samples = 34<br/>value = [19, 15]>, fillcolor="#fae4d5"] ;
268 -> 304 ;
305 [label=<age &le; 23.0<br/>entropy = 0.985<br/>samples = 21<br/>value = [9, 12]>, fillcolor="#cee6f8"] ;
304 -> 305 ;
306 [label=<fare &le; 109.892<br/>entropy = 0.722<br/>samples = 5<br/>value = [4, 1]>, fillcolor="#eca06a"] ;
305 -> 306 ;
307 [label=<entropy = 0.0<br/>samples = 4<br/>value = [4, 0]>, fillcolor="#e58139"] ;
306 -> 307 ;
308 [label=<entropy = 0.0<br/>samples = 1<br/>value = [0, 1]>, fillcolor="#399de5"] ;
306 -> 308 ;
309 [label=<age &le; 27.5<br/>entropy = 0.896<br/>samples = 16<br/>value = [5, 11]>, fillcolor="#93caf1"] ;
305 -> 309 ;
310 [label=<entropy = 0.0<br/>samples = 5<br/>value = [0, 5]>, fillcolor="#399de5"] ;
309 -> 310 ;
311 [label=<age &le; 30.0<br/>entropy = 0.994<br/>samples = 11<br/>value = [5, 6]>, fillcolor="#deeffb"] ;
309 -> 311 ;
312 [label=<sibsp &le; 0.5<br/>entropy = 0.722<br/>samples = 5<br/>value = [4, 1]>, fillcolor="#eca06a"] ;
311 -> 312 ;
313 [label=<entropy = 0.918<br/>samples = 3<br/>value = [2, 1]>, fillcolor="#f2c09c"] ;
312 -> 313 ;
314 [label=<entropy = 0.0<br/>samples = 2<br/>value = [2, 0]>, fillcolor="#e58139"] ;
312 -> 314 ;
315 [label=<fare &le; 67.925<br/>entropy = 0.65<br/>samples = 6<br/>value = [1, 5]>, fillcolor="#61b1ea"] ;
311 -> 315 ;
316 [label=<entropy = 0.0<br/>samples = 4<br/>value = [0, 4]>, fillcolor="#399de5"] ;
315 -> 316 ;
317 [label=<age &le; 37.0<br/>entropy = 1.0<br/>samples = 2<br/>value = [1, 1]>, fillcolor="#ffffff"] ;
315 -> 317 ;
318 [label=<entropy = 0.0<br/>samples = 1<br/>value = [1, 0]>, fillcolor="#e58139"] ;
317 -> 318 ;
319 [label=<entropy = 0.0<br/>samples = 1<br/>value = [0, 1]>, fillcolor="#399de5"] ;
317 -> 319 ;
320 [label=<embark_town &le; 1.0<br/>entropy = 0.779<br/>samples = 13<br/>value = [10, 3]>, fillcolor="#eda774"] ;
304 -> 320 ;
321 [label=<fare &le; 97.765<br/>entropy = 0.985<br/>samples = 7<br/>value = [4, 3]>, fillcolor="#f8e0ce"] ;
320 -> 321 ;
322 [label=<sibsp &le; 0.5<br/>entropy = 0.971<br/>samples = 5<br/>value = [2, 3]>, fillcolor="#bddef6"] ;
321 -> 322 ;
323 [label=<entropy = 0.0<br/>samples = 2<br/>value = [2, 0]>, fillcolor="#e58139"] ;
322 -> 323 ;
324 [label=<entropy = 0.0<br/>samples = 3<br/>value = [0, 3]>, fillcolor="#399de5"] ;
322 -> 324 ;
325 [label=<entropy = 0.0<br/>samples = 2<br/>value = [2, 0]>, fillcolor="#e58139"] ;
321 -> 325 ;
326 [label=<entropy = 0.0<br/>samples = 6<br/>value = [6, 0]>, fillcolor="#e58139"] ;
320 -> 326 ;
327 [label=<entropy = 0.0<br/>samples = 7<br/>value = [7, 0]>, fillcolor="#e58139"] ;
267 -> 327 ;
328 [label=<entropy = 0.0<br/>samples = 2<br/>value = [0, 2]>, fillcolor="#399de5"] ;
266 -> 328 ;
329 [label=<entropy = 0.0<br/>samples = 7<br/>value = [7, 0]>, fillcolor="#e58139"] ;
265 -> 329 ;
330 [label=<entropy = 0.0<br/>samples = 2<br/>value = [0, 2]>, fillcolor="#399de5"] ;
264 -> 330 ;
}